2
bad 0.175841 -0.272794 0.389364 1.545684 -0.761906 -0.901387 0.931417 -0.390302 0.097452 0.260743 0.700171 0.070421 0.021429 -0.268637 -0.612068 -0.416185 0.031768 0.496937 1.295400 -0.532406 -0.461315 0.233635 1.304128 1.195078 -0.008627 -1.450891 -0.285099 0.473764 -0.109858 0.419493 -0.213442 -0.466575 0.564174 -0.387293 0.998390 0.600976 0.902207 -0.092350 -0.514314 0.282408 -0.155068 -0.291372 -0.479619 0.260790 -0.911154 -0.024372 -0.774028 0.941602 0.230857 -1.062192 0.188443 0.036947 -0.632089 -0.016421 -0.042067 -0.238139 -0.388438 -0.413936 -1.271909 0.435642 0.400535 -1.090265 -0.109459 -0.614512 1.344050 0.277883 0.359366 0.276926 1.019255 1.117534 -0.535840 0.796812 1.428255 -0.320625 -0.769446 0.297959 -1.042029 1.622410 -0.548152 -0.114121 -0.455682 -1.399467 -0.369002 0.904787 0.900484 -1.196490 -0.470205 -0.380655 -1.038291 -0.579465 0.640950 -0.394825 0.760418 -0.556079 -0.339900 0.071846 -0.678501 0.588764 -0.699761 -0.509028 
good -0.486517 0.791331 -0.962804 -1.974340 -0.490969 1.431732 -1.245582 0.376871 0.349364 -0.078394 -1.321560 0.677490 0.318862 -0.057344 0.504086 -0.354992 -0.007217 -0.293022 0.515796 -0.803312 1.297630 -0.460580 -1.689041 -2.027449 0.007684 -0.665550 -0.695762 0.286256 -0.775511 0.009126 0.395333 -0.791672 0.324233 -0.136383 0.233335 0.458822 -0.287400 -0.066843 0.607336 0.743748 -0.005761 -0.212653 -0.663730 -0.638276 -0.869015 0.490846 1.493111 -1.325617 -0.309353 0.530800 0.966843 0.638226 0.820406 0.184519 0.727856 1.636768 -0.820050 0.016131 0.116071 -0.228425 0.446569 0.853434 0.424201 0.806599 -0.021323 0.542161 0.176812 -0.578286 0.614419 1.479113 -0.883543 -0.458722 -0.343849 1.286260 -0.150377 -0.160720 1.080230 1.004385 -0.061081 0.186888 -0.021855 0.314711 0.306049 -0.080763 -0.800673 -0.025288 0.465805 0.109276 -0.164891 0.675192 -0.655078 0.289409 -0.721371 -0.484791 0.409853 0.300499 -0.490425 0.575294 -0.027582 0.039003 
