4
politics 0.198957 0.130082 -0.146780 -0.261794 -0.202231 0.765133 -0.867308 0.495095 -0.337727 -0.603889 0.840571 0.277462 0.381854 -0.059053 0.195065 -0.071608 -0.551974 1.007395 -0.890176 -0.980967 0.312150 -0.914025 0.326532 0.201892 0.099687 -0.690564 -0.823901 -0.520747 -1.280029 0.258277 0.494445 -0.248323 0.331770 0.685402 0.556688 0.069153 0.714397 -0.166243 0.505246 0.296336 -0.538046 0.444266 -0.573765 -0.400480 0.134585 0.480325 -0.142087 0.014053 -0.438504 -0.417227 0.721865 0.103676 0.614148 0.322110 0.906150 0.436493 0.795152 0.476123 0.770787 -0.254932 -1.490185 0.274955 0.076588 -0.551586 -0.077601 0.093943 -0.382244 0.514157 -0.754736 0.579989 0.119229 -0.122299 -1.304006 0.423470 0.035626 0.372687 0.510410 1.230583 0.227735 0.335849 0.894730 -0.038332 0.410119 0.080729 -0.706622 -0.948641 -0.242393 0.068892 -0.030323 -1.211773 0.084770 1.023418 -0.581507 -0.263414 1.109971 0.415974 0.097277 -0.077412 -0.925270 0.374909 
sports 0.595410 0.946466 -0.151073 1.211771 0.256234 1.306074 -0.776776 -0.218411 -0.703661 -0.611423 0.444147 1.689481 0.511041 0.185460 0.438959 0.664864 0.752312 -0.652402 1.332724 -0.447548 0.498492 0.464637 0.611282 -0.183508 -0.399544 0.980133 -0.222355 1.013423 -0.237536 0.460915 -0.830523 -0.820201 -0.289281 0.606243 -0.317095 0.370677 0.743332 -0.009626 0.387236 0.509520 -0.397389 0.262402 0.523971 -0.774948 0.013526 -0.334527 0.253155 0.058308 -0.102130 -0.594980 -0.394630 0.023983 0.687565 -0.385186 -0.604214 0.009208 -0.495522 -0.209856 -0.277909 -0.042395 -0.677678 -0.019581 0.224800 0.665328 0.658032 -0.106236 0.148442 -0.638060 0.191813 0.666147 0.178632 -0.833599 0.827375 -0.811724 0.962960 -0.056099 -0.320413 0.334988 0.270645 -0.883753 0.979368 -0.338966 1.142451 -0.838899 -1.246116 -1.256002 1.239185 -0.481801 -1.246417 -0.391766 0.087381 0.221432 -0.349691 0.531004 -0.076964 0.300764 -0.082751 -0.944159 0.056927 0.229121 
business -0.059778 1.194428 0.311080 -0.302478 0.244287 0.697851 -0.695690 0.647136 0.691622 0.458636 0.429882 -0.365261 -0.068701 0.542622 -0.615577 0.344453 -0.259254 0.675373 0.142466 0.768648 1.053635 -0.657991 1.030470 0.080514 -0.074159 -0.562494 0.314866 -0.213615 -0.323233 0.071391 -0.688308 -0.385504 0.525138 -1.253957 -0.446633 -0.011386 -0.309032 -0.580743 -0.741629 0.416490 0.748990 -0.698194 0.003916 -1.225913 1.041321 0.700215 -0.561751 0.190431 -1.029129 -0.196185 -0.084746 0.268208 1.133221 1.185900 0.233572 0.080635 0.020647 -0.742770 0.438461 -0.279932 -0.408482 0.422164 -0.211194 -0.649879 0.720239 -0.589340 0.534575 0.239505 0.114312 0.017150 0.820625 -0.439887 -0.208833 0.862080 0.993204 -1.120858 -0.957602 0.841531 0.116542 0.219355 0.008168 -0.748850 -0.259865 -0.873547 -0.398484 -0.713154 -1.162309 -0.238220 -1.907771 -0.115436 0.970098 -0.718163 -0.676361 -0.921366 -0.005209 -0.323097 0.605150 -1.232828 1.172297 0.162248 
technology 0.648403 0.700340 0.477402 0.280797 1.525772 0.356588 -0.398078 0.251533 -1.733707 0.501424 1.389031 -0.023144 -0.529486 -0.497554 -0.450598 0.030615 -0.513211 0.166976 1.073489 -0.351178 0.819857 0.909224 -0.104186 -0.135239 0.183773 -0.163377 0.044081 0.966224 -0.765424 -0.189078 0.448789 0.632836 0.073442 -0.808757 -0.465358 0.077484 0.264459 -0.363217 0.324521 -0.501295 0.170907 -0.294199 -1.073745 -1.611638 0.638871 -0.302939 0.207388 0.729992 0.271729 0.918280 -0.137768 0.716576 -0.060814 0.557294 0.245288 0.529653 -0.333280 -0.626869 0.781373 -0.624172 0.417245 0.573184 0.612109 -0.293743 0.746983 -1.032432 -0.245028 -0.536758 0.802124 0.632118 -0.017426 1.655722 -0.204878 0.238923 -0.049863 0.070304 1.100589 1.782059 -0.788150 0.427461 -0.097144 0.207512 0.149984 -0.030943 -0.847391 -0.422980 -0.573659 -0.357907 0.369390 0.082137 -0.332017 -0.833185 -0.257800 -0.900135 0.285395 -0.055207 1.284707 -0.017885 -0.626353 0.240039 
